digraph Tree {
node [shape=box, fontname="helvetica"] ;
edge [fontname="helvetica"] ;
0 [label="x[2] <= 2.45\nentropy = 1.585\nsamples = 149\nvalue = [49, 50, 50]"] ;
1 [label="entropy = 0.0\nsamples = 49\nvalue = [49, 0, 0]"] ;
0 -> 1 [labeldistance=2.5, labelangle=45, headlabel="True"] ;
2 [label="x[2] <= 4.75\nentropy = 1.0\nsamples = 100\nvalue = [0, 50, 50]"] ;
0 -> 2 [labeldistance=2.5, labelangle=-45, headlabel="False"] ;
3 [label="x[1] <= 2.55\nentropy = 0.154\nsamples = 45\nvalue = [0, 44, 1]"] ;
2 -> 3 ;
4 [label="x[0] <= 4.95\nentropy = 0.391\nsamples = 13\nvalue = [0, 12, 1]"] ;
3 -> 4 ;
5 [label="x[2] <= 3.9\nentropy = 1.0\nsamples = 2\nvalue = [0, 1, 1]"] ;
4 -> 5 ;
6 [label="entropy = 0.0\nsamples = 1\nvalue = [0, 1, 0]"] ;
5 -> 6 ;
7 [label="entropy = 0.0\nsamples = 1\nvalue = [0, 0, 1]"] ;
5 -> 7 ;
8 [label="entropy = 0.0\nsamples = 11\nvalue = [0, 11, 0]"] ;
4 -> 8 ;
9 [label="entropy = 0.0\nsamples = 32\nvalue = [0, 32, 0]"] ;
3 -> 9 ;
10 [label="x[2] <= 5.15\nentropy = 0.497\nsamples = 55\nvalue = [0, 6, 49]"] ;
2 -> 10 ;
11 [label="x[3] <= 1.75\nentropy = 0.863\nsamples = 21\nvalue = [0, 6, 15]"] ;
10 -> 11 ;
12 [label="x[0] <= 6.5\nentropy = 0.863\nsamples = 7\nvalue = [0, 5, 2]"] ;
11 -> 12 ;
13 [label="entropy = 1.0\nsamples = 4\nvalue = [0, 2, 2]"] ;
12 -> 13 ;
14 [label="entropy = 0.0\nsamples = 3\nvalue = [0, 3, 0]"] ;
12 -> 14 ;
15 [label="x[2] <= 4.85\nentropy = 0.371\nsamples = 14\nvalue = [0, 1, 13]"] ;
11 -> 15 ;
16 [label="entropy = 0.918\nsamples = 3\nvalue = [0, 1, 2]"] ;
15 -> 16 ;
17 [label="entropy = 0.0\nsamples = 11\nvalue = [0, 0, 11]"] ;
15 -> 17 ;
18 [label="entropy = 0.0\nsamples = 34\nvalue = [0, 0, 34]"] ;
10 -> 18 ;
}